digraph Tree {
node [shape=box] ;
0 [label="X[0] <= 0.553\nentropy = 0.946\nsamples = 280\nvalue = [178, 102]"] ;
1 [label="X[1] <= 0.598\nentropy = 0.676\nsamples = 202\nvalue = [166, 36]"] ;
0 -> 1 [labeldistance=2.5, labelangle=45, headlabel="True"] ;
2 [label="X[0] <= -0.134\nentropy = 0.224\nsamples = 166\nvalue = [160, 6]"] ;
1 -> 2 ;
3 [label="entropy = 0.0\nsamples = 109\nvalue = [109, 0]"] ;
2 -> 3 ;
4 [label="X[1] <= 0.396\nentropy = 0.485\nsamples = 57\nvalue = [51, 6]"] ;
2 -> 4 ;
5 [label="X[1] <= -0.067\nentropy = 0.376\nsamples = 55\nvalue = [51, 4]"] ;
4 -> 5 ;
6 [label="entropy = 0.0\nsamples = 27\nvalue = [27, 0]"] ;
5 -> 6 ;
7 [label="X[1] <= 0.02\nentropy = 0.592\nsamples = 28\nvalue = [24, 4]"] ;
5 -> 7 ;
8 [label="entropy = 0.0\nsamples = 1\nvalue = [0, 1]"] ;
7 -> 8 ;
9 [label="X[0] <= 0.258\nentropy = 0.503\nsamples = 27\nvalue = [24, 3]"] ;
7 -> 9 ;
10 [label="X[1] <= 0.251\nentropy = 0.65\nsamples = 18\nvalue = [15, 3]"] ;
9 -> 10 ;
11 [label="X[1] <= 0.136\nentropy = 0.722\nsamples = 15\nvalue = [12, 3]"] ;
10 -> 11 ;
12 [label="X[0] <= 0.16\nentropy = 0.469\nsamples = 10\nvalue = [9, 1]"] ;
11 -> 12 ;
13 [label="entropy = 0.0\nsamples = 8\nvalue = [8, 0]"] ;
12 -> 13 ;
14 [label="X[1] <= 0.049\nentropy = 1.0\nsamples = 2\nvalue = [1, 1]"] ;
12 -> 14 ;
15 [label="entropy = 0.0\nsamples = 1\nvalue = [0, 1]"] ;
14 -> 15 ;
16 [label="entropy = 0.0\nsamples = 1\nvalue = [1, 0]"] ;
14 -> 16 ;
17 [label="X[0] <= 0.16\nentropy = 0.971\nsamples = 5\nvalue = [3, 2]"] ;
11 -> 17 ;
18 [label="X[0] <= 0.013\nentropy = 0.918\nsamples = 3\nvalue = [1, 2]"] ;
17 -> 18 ;
19 [label="X[1] <= 0.194\nentropy = 1.0\nsamples = 2\nvalue = [1, 1]"] ;
18 -> 19 ;
20 [label="entropy = 0.0\nsamples = 1\nvalue = [1, 0]"] ;
19 -> 20 ;
21 [label="entropy = 0.0\nsamples = 1\nvalue = [0, 1]"] ;
19 -> 21 ;
22 [label="entropy = 0.0\nsamples = 1\nvalue = [0, 1]"] ;
18 -> 22 ;
23 [label="entropy = 0.0\nsamples = 2\nvalue = [2, 0]"] ;
17 -> 23 ;
24 [label="entropy = 0.0\nsamples = 3\nvalue = [3, 0]"] ;
10 -> 24 ;
25 [label="entropy = 0.0\nsamples = 9\nvalue = [9, 0]"] ;
9 -> 25 ;
26 [label="entropy = 0.0\nsamples = 2\nvalue = [0, 2]"] ;
4 -> 26 ;
27 [label="X[1] <= 1.842\nentropy = 0.65\nsamples = 36\nvalue = [6, 30]"] ;
1 -> 27 ;
28 [label="X[1] <= 1.09\nentropy = 0.795\nsamples = 25\nvalue = [6, 19]"] ;
27 -> 28 ;
29 [label="entropy = 0.0\nsamples = 8\nvalue = [0, 8]"] ;
28 -> 29 ;
30 [label="X[1] <= 1.35\nentropy = 0.937\nsamples = 17\nvalue = [6, 11]"] ;
28 -> 30 ;
31 [label="X[0] <= -0.428\nentropy = 0.985\nsamples = 7\nvalue = [4, 3]"] ;
30 -> 31 ;
32 [label="entropy = 0.0\nsamples = 2\nvalue = [2, 0]"] ;
31 -> 32 ;
33 [label="X[1] <= 1.235\nentropy = 0.971\nsamples = 5\nvalue = [2, 3]"] ;
31 -> 33 ;
34 [label="X[0] <= -0.33\nentropy = 1.0\nsamples = 4\nvalue = [2, 2]"] ;
33 -> 34 ;
35 [label="entropy = 0.0\nsamples = 1\nvalue = [0, 1]"] ;
34 -> 35 ;
36 [label="X[0] <= 0.209\nentropy = 0.918\nsamples = 3\nvalue = [2, 1]"] ;
34 -> 36 ;
37 [label="entropy = 0.0\nsamples = 2\nvalue = [2, 0]"] ;
36 -> 37 ;
38 [label="entropy = 0.0\nsamples = 1\nvalue = [0, 1]"] ;
36 -> 38 ;
39 [label="entropy = 0.0\nsamples = 1\nvalue = [0, 1]"] ;
33 -> 39 ;
40 [label="X[1] <= 1.77\nentropy = 0.722\nsamples = 10\nvalue = [2, 8]"] ;
30 -> 40 ;
41 [label="X[0] <= -1.065\nentropy = 0.503\nsamples = 9\nvalue = [1, 8]"] ;
40 -> 41 ;
42 [label="entropy = 0.0\nsamples = 1\nvalue = [1, 0]"] ;
41 -> 42 ;
43 [label="entropy = 0.0\nsamples = 8\nvalue = [0, 8]"] ;
41 -> 43 ;
44 [label="entropy = 0.0\nsamples = 1\nvalue = [1, 0]"] ;
40 -> 44 ;
45 [label="entropy = 0.0\nsamples = 11\nvalue = [0, 11]"] ;
27 -> 45 ;
46 [label="X[1] <= -0.819\nentropy = 0.619\nsamples = 78\nvalue = [12, 66]"] ;
0 -> 46 [labeldistance=2.5, labelangle=-45, headlabel="False"] ;
47 [label="X[1] <= -1.368\nentropy = 0.222\nsamples = 28\nvalue = [1, 27]"] ;
46 -> 47 ;
48 [label="X[0] <= 0.847\nentropy = 0.811\nsamples = 4\nvalue = [1, 3]"] ;
47 -> 48 ;
49 [label="X[0] <= 0.749\nentropy = 1.0\nsamples = 2\nvalue = [1, 1]"] ;
48 -> 49 ;
50 [label="entropy = 0.0\nsamples = 1\nvalue = [0, 1]"] ;
49 -> 50 ;
51 [label="entropy = 0.0\nsamples = 1\nvalue = [1, 0]"] ;
49 -> 51 ;
52 [label="entropy = 0.0\nsamples = 2\nvalue = [0, 2]"] ;
48 -> 52 ;
53 [label="entropy = 0.0\nsamples = 24\nvalue = [0, 24]"] ;
47 -> 53 ;
54 [label="X[0] <= 1.435\nentropy = 0.76\nsamples = 50\nvalue = [11, 39]"] ;
46 -> 54 ;
55 [label="X[1] <= 0.396\nentropy = 0.929\nsamples = 29\nvalue = [10, 19]"] ;
54 -> 55 ;
56 [label="X[0] <= 1.043\nentropy = 0.971\nsamples = 10\nvalue = [6, 4]"] ;
55 -> 56 ;
57 [label="X[1] <= -0.688\nentropy = 1.0\nsamples = 8\nvalue = [4, 4]"] ;
56 -> 57 ;
58 [label="entropy = 0.0\nsamples = 1\nvalue = [0, 1]"] ;
57 -> 58 ;
59 [label="X[0] <= 0.945\nentropy = 0.985\nsamples = 7\nvalue = [4, 3]"] ;
57 -> 59 ;
60 [label="X[1] <= -0.616\nentropy = 0.918\nsamples = 6\nvalue = [4, 2]"] ;
59 -> 60 ;
61 [label="entropy = 0.0\nsamples = 1\nvalue = [1, 0]"] ;
60 -> 61 ;
62 [label="X[0] <= 0.847\nentropy = 0.971\nsamples = 5\nvalue = [3, 2]"] ;
60 -> 62 ;
63 [label="X[1] <= 0.194\nentropy = 0.811\nsamples = 4\nvalue = [3, 1]"] ;
62 -> 63 ;
64 [label="entropy = 0.0\nsamples = 2\nvalue = [2, 0]"] ;
63 -> 64 ;
65 [label="X[0] <= 0.749\nentropy = 1.0\nsamples = 2\nvalue = [1, 1]"] ;
63 -> 65 ;
66 [label="entropy = 0.0\nsamples = 1\nvalue = [1, 0]"] ;
65 -> 66 ;
67 [label="entropy = 0.0\nsamples = 1\nvalue = [0, 1]"] ;
65 -> 67 ;
68 [label="entropy = 0.0\nsamples = 1\nvalue = [0, 1]"] ;
62 -> 68 ;
69 [label="entropy = 0.0\nsamples = 1\nvalue = [0, 1]"] ;
59 -> 69 ;
70 [label="entropy = 0.0\nsamples = 2\nvalue = [2, 0]"] ;
56 -> 70 ;
71 [label="X[1] <= 0.656\nentropy = 0.742\nsamples = 19\nvalue = [4, 15]"] ;
55 -> 71 ;
72 [label="entropy = 0.0\nsamples = 4\nvalue = [0, 4]"] ;
71 -> 72 ;
73 [label="X[1] <= 1.321\nentropy = 0.837\nsamples = 15\nvalue = [4, 11]"] ;
71 -> 73 ;
74 [label="X[0] <= 0.847\nentropy = 1.0\nsamples = 4\nvalue = [2, 2]"] ;
73 -> 74 ;
75 [label="entropy = 0.0\nsamples = 1\nvalue = [1, 0]"] ;
74 -> 75 ;
76 [label="X[0] <= 1.19\nentropy = 0.918\nsamples = 3\nvalue = [1, 2]"] ;
74 -> 76 ;
77 [label="entropy = 0.0\nsamples = 2\nvalue = [0, 2]"] ;
76 -> 77 ;
78 [label="entropy = 0.0\nsamples = 1\nvalue = [1, 0]"] ;
76 -> 78 ;
79 [label="X[1] <= 1.813\nentropy = 0.684\nsamples = 11\nvalue = [2, 9]"] ;
73 -> 79 ;
80 [label="entropy = 0.0\nsamples = 3\nvalue = [0, 3]"] ;
79 -> 80 ;
81 [label="X[0] <= 1.337\nentropy = 0.811\nsamples = 8\nvalue = [2, 6]"] ;
79 -> 81 ;
82 [label="X[0] <= 0.798\nentropy = 0.918\nsamples = 6\nvalue = [2, 4]"] ;
81 -> 82 ;
83 [label="entropy = 0.0\nsamples = 1\nvalue = [0, 1]"] ;
82 -> 83 ;
84 [label="X[1] <= 2.131\nentropy = 0.971\nsamples = 5\nvalue = [2, 3]"] ;
82 -> 84 ;
85 [label="X[0] <= 1.141\nentropy = 1.0\nsamples = 4\nvalue = [2, 2]"] ;
84 -> 85 ;
86 [label="X[1] <= 2.015\nentropy = 0.918\nsamples = 3\nvalue = [1, 2]"] ;
85 -> 86 ;
87 [label="entropy = 0.0\nsamples = 2\nvalue = [0, 2]"] ;
86 -> 87 ;
88 [label="entropy = 0.0\nsamples = 1\nvalue = [1, 0]"] ;
86 -> 88 ;
89 [label="entropy = 0.0\nsamples = 1\nvalue = [1, 0]"] ;
85 -> 89 ;
90 [label="entropy = 0.0\nsamples = 1\nvalue = [0, 1]"] ;
84 -> 90 ;
91 [label="entropy = 0.0\nsamples = 2\nvalue = [0, 2]"] ;
81 -> 91 ;
92 [label="X[1] <= -0.746\nentropy = 0.276\nsamples = 21\nvalue = [1, 20]"] ;
54 -> 92 ;
93 [label="X[0] <= 2.121\nentropy = 1.0\nsamples = 2\nvalue = [1, 1]"] ;
92 -> 93 ;
94 [label="entropy = 0.0\nsamples = 1\nvalue = [1, 0]"] ;
93 -> 94 ;
95 [label="entropy = 0.0\nsamples = 1\nvalue = [0, 1]"] ;
93 -> 95 ;
96 [label="entropy = 0.0\nsamples = 19\nvalue = [0, 19]"] ;
92 -> 96 ;
}